digraph Tree {
node [shape=box, fontname="helvetica"] ;
edge [fontname="helvetica"] ;
0 [label="impute_DELINQ <= 0.5\ngini = 0.322\nsamples = 5364\nvalue = [4284, 1080]"] ;
1 [label="impute_DEBTINC <= 45.657\ngini = 0.24\nsamples = 4272\nvalue = [3677, 595]"] ;
0 -> 1 [labeldistance=2.5, labelangle=45, headlabel="True"] ;
2 [label="impute_DEBTINC <= 34.789\ngini = 0.226\nsamples = 4226\nvalue = [3677, 549]"] ;
1 -> 2 ;
3 [label="impute_VALUE <= 21771.5\ngini = 0.075\nsamples = 1804\nvalue = [1734, 70]"] ;
2 -> 3 ;
4 [label="gini = 0.0\nsamples = 3\nvalue = [0, 3]"] ;
3 -> 4 ;
5 [label="impute_DEROG <= 7.5\ngini = 0.072\nsamples = 1801\nvalue = [1734, 67]"] ;
3 -> 5 ;
6 [label="impute_VALUE <= 300532.5\ngini = 0.07\nsamples = 1799\nvalue = [1734, 65]"] ;
5 -> 6 ;
7 [label="impute_CLNO <= 6.5\ngini = 0.068\nsamples = 1797\nvalue = [1734, 63]"] ;
6 -> 7 ;
8 [label="impute_VALUE <= 99981.5\ngini = 0.245\nsamples = 77\nvalue = [66, 11]"] ;
7 -> 8 ;
9 [label="gini = 0.153\nsamples = 72\nvalue = [66, 6]"] ;
8 -> 9 ;
10 [label="gini = 0.0\nsamples = 5\nvalue = [0, 5]"] ;
8 -> 10 ;
11 [label="impute_DEBTINC <= 3.871\ngini = 0.059\nsamples = 1720\nvalue = [1668, 52]"] ;
7 -> 11 ;
12 [label="gini = 0.0\nsamples = 3\nvalue = [0, 3]"] ;
11 -> 12 ;
13 [label="gini = 0.055\nsamples = 1717\nvalue = [1668, 49]"] ;
11 -> 13 ;
14 [label="gini = 0.0\nsamples = 2\nvalue = [0, 2]"] ;
6 -> 14 ;
15 [label="gini = 0.0\nsamples = 2\nvalue = [0, 2]"] ;
5 -> 15 ;
16 [label="impute_DEBTINC <= 34.818\ngini = 0.317\nsamples = 2422\nvalue = [1943, 479]"] ;
2 -> 16 ;
17 [label="impute_CLAGE <= 178.101\ngini = 0.5\nsamples = 727\nvalue = [359, 368]"] ;
16 -> 17 ;
18 [label="JOB__MISSING <= 0.5\ngini = 0.469\nsamples = 466\nvalue = [175, 291]"] ;
17 -> 18 ;
19 [label="impute_CLNO <= 3.5\ngini = 0.458\nsamples = 437\nvalue = [155, 282]"] ;
18 -> 19 ;
20 [label="impute_NINQ <= 4.5\ngini = 0.067\nsamples = 29\nvalue = [1, 28]"] ;
19 -> 20 ;
21 [label="gini = 0.0\nsamples = 26\nvalue = [0, 26]"] ;
20 -> 21 ;
22 [label="gini = 0.444\nsamples = 3\nvalue = [1, 2]"] ;
20 -> 22 ;
23 [label="impute_DEROG <= 0.5\ngini = 0.47\nsamples = 408\nvalue = [154, 254]"] ;
19 -> 23 ;
24 [label="gini = 0.486\nsamples = 328\nvalue = [137, 191]"] ;
23 -> 24 ;
25 [label="gini = 0.335\nsamples = 80\nvalue = [17, 63]"] ;
23 -> 25 ;
26 [label="impute_LOAN <= 2800.0\ngini = 0.428\nsamples = 29\nvalue = [20, 9]"] ;
18 -> 26 ;
27 [label="gini = 0.0\nsamples = 3\nvalue = [0, 3]"] ;
26 -> 27 ;
28 [label="impute_LOAN <= 13950.0\ngini = 0.355\nsamples = 26\nvalue = [20, 6]"] ;
26 -> 28 ;
29 [label="gini = 0.0\nsamples = 14\nvalue = [14, 0]"] ;
28 -> 29 ;
30 [label="gini = 0.5\nsamples = 12\nvalue = [6, 6]"] ;
28 -> 30 ;
31 [label="impute_YOJ <= 4.75\ngini = 0.416\nsamples = 261\nvalue = [184, 77]"] ;
17 -> 31 ;
32 [label="JOB__Office <= 0.5\ngini = 0.498\nsamples = 87\nvalue = [46, 41]"] ;
31 -> 32 ;
33 [label="impute_DEROG <= 3.0\ngini = 0.5\nsamples = 82\nvalue = [41, 41]"] ;
32 -> 33 ;
34 [label="gini = 0.499\nsamples = 78\nvalue = [41, 37]"] ;
33 -> 34 ;
35 [label="gini = 0.0\nsamples = 4\nvalue = [0, 4]"] ;
33 -> 35 ;
36 [label="gini = 0.0\nsamples = 5\nvalue = [5, 0]"] ;
32 -> 36 ;
37 [label="impute_VALUE <= 289000.0\ngini = 0.328\nsamples = 174\nvalue = [138, 36]"] ;
31 -> 37 ;
38 [label="JOB__Sales <= 0.5\ngini = 0.311\nsamples = 171\nvalue = [138, 33]"] ;
37 -> 38 ;
39 [label="gini = 0.288\nsamples = 166\nvalue = [137, 29]"] ;
38 -> 39 ;
40 [label="gini = 0.32\nsamples = 5\nvalue = [1, 4]"] ;
38 -> 40 ;
41 [label="gini = 0.0\nsamples = 3\nvalue = [0, 3]"] ;
37 -> 41 ;
42 [label="impute_DEROG <= 2.5\ngini = 0.122\nsamples = 1695\nvalue = [1584, 111]"] ;
16 -> 42 ;
43 [label="impute_VALUE <= 491495.5\ngini = 0.117\nsamples = 1689\nvalue = [1584, 105]"] ;
42 -> 43 ;
44 [label="impute_CLNO <= 2.0\ngini = 0.112\nsamples = 1684\nvalue = [1584, 100]"] ;
43 -> 44 ;
45 [label="impute_LOAN <= 33800.0\ngini = 0.375\nsamples = 8\nvalue = [2, 6]"] ;
44 -> 45 ;
46 [label="gini = 0.0\nsamples = 6\nvalue = [0, 6]"] ;
45 -> 46 ;
47 [label="gini = 0.0\nsamples = 2\nvalue = [2, 0]"] ;
45 -> 47 ;
48 [label="impute_DEBTINC <= 43.68\ngini = 0.106\nsamples = 1676\nvalue = [1582, 94]"] ;
44 -> 48 ;
49 [label="gini = 0.095\nsamples = 1633\nvalue = [1551, 82]"] ;
48 -> 49 ;
50 [label="gini = 0.402\nsamples = 43\nvalue = [31, 12]"] ;
48 -> 50 ;
51 [label="gini = 0.0\nsamples = 5\nvalue = [0, 5]"] ;
43 -> 51 ;
52 [label="gini = 0.0\nsamples = 6\nvalue = [0, 6]"] ;
42 -> 52 ;
53 [label="gini = 0.0\nsamples = 46\nvalue = [0, 46]"] ;
1 -> 53 ;
54 [label="impute_DEBTINC <= 34.816\ngini = 0.494\nsamples = 1092\nvalue = [607, 485]"] ;
0 -> 54 [labeldistance=2.5, labelangle=-45, headlabel="False"] ;
55 [label="impute_NINQ <= 4.5\ngini = 0.28\nsamples = 297\nvalue = [247, 50]"] ;
54 -> 55 ;
56 [label="impute_DEBTINC <= 10.097\ngini = 0.248\nsamples = 289\nvalue = [247, 42]"] ;
55 -> 56 ;
57 [label="gini = 0.0\nsamples = 5\nvalue = [0, 5]"] ;
56 -> 57 ;
58 [label="impute_CLAGE <= 84.495\ngini = 0.227\nsamples = 284\nvalue = [247, 37]"] ;
56 -> 58 ;
59 [label="impute_LOAN <= 21500.0\ngini = 0.42\nsamples = 10\nvalue = [3, 7]"] ;
58 -> 59 ;
60 [label="JOB__Office <= 0.5\ngini = 0.219\nsamples = 8\nvalue = [1, 7]"] ;
59 -> 60 ;
61 [label="gini = 0.0\nsamples = 7\nvalue = [0, 7]"] ;
60 -> 61 ;
62 [label="gini = 0.0\nsamples = 1\nvalue = [1, 0]"] ;
60 -> 62 ;
63 [label="gini = 0.0\nsamples = 2\nvalue = [2, 0]"] ;
59 -> 63 ;
64 [label="impute_DELINQ <= 5.5\ngini = 0.195\nsamples = 274\nvalue = [244, 30]"] ;
58 -> 64 ;
65 [label="impute_MORTDUE <= 6013.0\ngini = 0.179\nsamples = 271\nvalue = [244, 27]"] ;
64 -> 65 ;
66 [label="gini = 0.0\nsamples = 1\nvalue = [0, 1]"] ;
65 -> 66 ;
67 [label="impute_DEROG <= 4.5\ngini = 0.174\nsamples = 270\nvalue = [244, 26]"] ;
65 -> 67 ;
68 [label="gini = 0.169\nsamples = 269\nvalue = [244, 25]"] ;
67 -> 68 ;
69 [label="gini = 0.0\nsamples = 1\nvalue = [0, 1]"] ;
67 -> 69 ;
70 [label="gini = 0.0\nsamples = 3\nvalue = [0, 3]"] ;
64 -> 70 ;
71 [label="gini = 0.0\nsamples = 8\nvalue = [0, 8]"] ;
55 -> 71 ;
72 [label="impute_DEBTINC <= 34.826\ngini = 0.496\nsamples = 795\nvalue = [360, 435]"] ;
54 -> 72 ;
73 [label="impute_CLAGE <= 329.367\ngini = 0.295\nsamples = 429\nvalue = [77, 352]"] ;
72 -> 73 ;
74 [label="impute_DEROG <= 0.5\ngini = 0.273\nsamples = 416\nvalue = [68, 348]"] ;
73 -> 74 ;
75 [label="impute_DELINQ <= 2.5\ngini = 0.341\nsamples = 266\nvalue = [58, 208]"] ;
74 -> 75 ;
76 [label="impute_YOJ <= 8.75\ngini = 0.401\nsamples = 180\nvalue = [50, 130]"] ;
75 -> 76 ;
77 [label="impute_MORTDUE <= 42250.0\ngini = 0.313\nsamples = 108\nvalue = [21, 87]"] ;
76 -> 77 ;
78 [label="gini = 0.0\nsamples = 24\nvalue = [0, 24]"] ;
77 -> 78 ;
79 [label="gini = 0.375\nsamples = 84\nvalue = [21, 63]"] ;
77 -> 79 ;
80 [label="impute_NINQ <= 2.5\ngini = 0.481\nsamples = 72\nvalue = [29, 43]"] ;
76 -> 80 ;
81 [label="gini = 0.499\nsamples = 58\nvalue = [28, 30]"] ;
80 -> 81 ;
82 [label="gini = 0.133\nsamples = 14\nvalue = [1, 13]"] ;
80 -> 82 ;
83 [label="impute_MORTDUE <= 56273.0\ngini = 0.169\nsamples = 86\nvalue = [8, 78]"] ;
75 -> 83 ;
84 [label="impute_CLNO <= 29.0\ngini = 0.328\nsamples = 29\nvalue = [6, 23]"] ;
83 -> 84 ;
85 [label="gini = 0.153\nsamples = 24\nvalue = [2, 22]"] ;
84 -> 85 ;
86 [label="gini = 0.32\nsamples = 5\nvalue = [4, 1]"] ;
84 -> 86 ;
87 [label="impute_YOJ <= 3.5\ngini = 0.068\nsamples = 57\nvalue = [2, 55]"] ;
83 -> 87 ;
88 [label="gini = 0.245\nsamples = 14\nvalue = [2, 12]"] ;
87 -> 88 ;
89 [label="gini = 0.0\nsamples = 43\nvalue = [0, 43]"] ;
87 -> 89 ;
90 [label="impute_YOJ <= 27.5\ngini = 0.124\nsamples = 150\nvalue = [10, 140]"] ;
74 -> 90 ;
91 [label="impute_CLAGE <= 133.083\ngini = 0.114\nsamples = 149\nvalue = [9, 140]"] ;
90 -> 91 ;
92 [label="impute_YOJ <= 0.4\ngini = 0.029\nsamples = 68\nvalue = [1, 67]"] ;
91 -> 92 ;
93 [label="gini = 0.245\nsamples = 7\nvalue = [1, 6]"] ;
92 -> 93 ;
94 [label="gini = 0.0\nsamples = 61\nvalue = [0, 61]"] ;
92 -> 94 ;
95 [label="impute_CLAGE <= 133.767\ngini = 0.178\nsamples = 81\nvalue = [8, 73]"] ;
91 -> 95 ;
96 [label="gini = 0.0\nsamples = 1\nvalue = [1, 0]"] ;
95 -> 96 ;
97 [label="gini = 0.16\nsamples = 80\nvalue = [7, 73]"] ;
95 -> 97 ;
98 [label="gini = 0.0\nsamples = 1\nvalue = [1, 0]"] ;
90 -> 98 ;
99 [label="impute_LOAN <= 31000.0\ngini = 0.426\nsamples = 13\nvalue = [9, 4]"] ;
73 -> 99 ;
100 [label="impute_NINQ <= 2.5\ngini = 0.298\nsamples = 11\nvalue = [9, 2]"] ;
99 -> 100 ;
101 [label="impute_CLNO <= 21.0\ngini = 0.18\nsamples = 10\nvalue = [9, 1]"] ;
100 -> 101 ;
102 [label="impute_CLNO <= 18.0\ngini = 0.444\nsamples = 3\nvalue = [2, 1]"] ;
101 -> 102 ;
103 [label="gini = 0.0\nsamples = 2\nvalue = [2, 0]"] ;
102 -> 103 ;
104 [label="gini = 0.0\nsamples = 1\nvalue = [0, 1]"] ;
102 -> 104 ;
105 [label="gini = 0.0\nsamples = 7\nvalue = [7, 0]"] ;
101 -> 105 ;
106 [label="gini = 0.0\nsamples = 1\nvalue = [0, 1]"] ;
100 -> 106 ;
107 [label="gini = 0.0\nsamples = 2\nvalue = [0, 2]"] ;
99 -> 107 ;
108 [label="impute_DEBTINC <= 43.571\ngini = 0.351\nsamples = 366\nvalue = [283, 83]"] ;
72 -> 108 ;
109 [label="impute_DELINQ <= 4.5\ngini = 0.27\nsamples = 336\nvalue = [282, 54]"] ;
108 -> 109 ;
110 [label="impute_CLAGE <= 90.783\ngini = 0.241\nsamples = 328\nvalue = [282, 46]"] ;
109 -> 110 ;
111 [label="impute_YOJ <= 4.5\ngini = 0.478\nsamples = 38\nvalue = [23, 15]"] ;
110 -> 111 ;
112 [label="impute_LOAN <= 5850.0\ngini = 0.117\nsamples = 16\nvalue = [15, 1]"] ;
111 -> 112 ;
113 [label="gini = 0.0\nsamples = 1\nvalue = [0, 1]"] ;
112 -> 113 ;
114 [label="gini = 0.0\nsamples = 15\nvalue = [15, 0]"] ;
112 -> 114 ;
115 [label="impute_VALUE <= 56382.0\ngini = 0.463\nsamples = 22\nvalue = [8, 14]"] ;
111 -> 115 ;
116 [label="gini = 0.0\nsamples = 5\nvalue = [5, 0]"] ;
115 -> 116 ;
117 [label="gini = 0.291\nsamples = 17\nvalue = [3, 14]"] ;
115 -> 117 ;
118 [label="impute_CLNO <= 58.0\ngini = 0.191\nsamples = 290\nvalue = [259, 31]"] ;
110 -> 118 ;
119 [label="impute_MORTDUE <= 27648.5\ngini = 0.176\nsamples = 287\nvalue = [259, 28]"] ;
118 -> 119 ;
120 [label="gini = 0.0\nsamples = 3\nvalue = [0, 3]"] ;
119 -> 120 ;
121 [label="gini = 0.161\nsamples = 284\nvalue = [259, 25]"] ;
119 -> 121 ;
122 [label="gini = 0.0\nsamples = 3\nvalue = [0, 3]"] ;
118 -> 122 ;
123 [label="gini = 0.0\nsamples = 8\nvalue = [0, 8]"] ;
109 -> 123 ;
124 [label="impute_VALUE <= 177714.0\ngini = 0.064\nsamples = 30\nvalue = [1, 29]"] ;
108 -> 124 ;
125 [label="gini = 0.0\nsamples = 28\nvalue = [0, 28]"] ;
124 -> 125 ;
126 [label="impute_VALUE <= 213783.0\ngini = 0.5\nsamples = 2\nvalue = [1, 1]"] ;
124 -> 126 ;
127 [label="gini = 0.0\nsamples = 1\nvalue = [1, 0]"] ;
126 -> 127 ;
128 [label="gini = 0.0\nsamples = 1\nvalue = [0, 1]"] ;
126 -> 128 ;
}